<?xml version="1.0"?>
<opencv_storage>
<cascade>
  <stageType>BOOST</stageType>
  <featureType>HAAR</featureType>
  <height>100</height>
  <width>100</width>
  <stageParams>
    <boostType>GAB</boostType>
    <minHitRate>9.9500000476837158e-01</minHitRate>
    <maxFalseAlarm>5.0000000000000000e-01</maxFalseAlarm>
    <weightTrimRate>9.4999999999999996e-01</weightTrimRate>
    <maxDepth>1</maxDepth>
    <maxWeakCount>100</maxWeakCount></stageParams>
  <featureParams>
    <maxCatCount>0</maxCatCount>
    <featSize>1</featSize>
    <mode>BASIC</mode></featureParams>
  <stageNum>10</stageNum>
  <stages>
    <!-- stage 0 -->
    <_>
      <maxWeakCount>4</maxWeakCount>
      <stageThreshold>-4.1171199083328247e-01</stageThreshold>
      <weakClassifiers>
        <_>
          <internalNodes>
            0 -1 9 -1.7403647303581238e-02</internalNodes>
          <leafValues>
            7.3544973134994507e-01 -6.9230771064758301e-01</leafValues></_>
        <_>
          <internalNodes>
            0 -1 7 -2.4984818883240223e-03</internalNodes>
          <leafValues>
            -7.8435295820236206e-01 4.1283178329467773e-01</leafValues></_>
        <_>
          <internalNodes>
            0 -1 36 -3.2435618340969086e-03</internalNodes>
          <leafValues>
            5.2521133422851563e-01 -7.5495684146881104e-01</leafValues></_>
        <_>
          <internalNodes>
            0 -1 2 7.3544057086110115e-03</internalNodes>
          <leafValues>
            -4.7646254301071167e-01 6.2272077798843384e-01</leafValues></_></weakClassifiers></_>
    <!-- stage 1 -->
    <_>
      <maxWeakCount>4</maxWeakCount>
      <stageThreshold>-3.7102830410003662e-01</stageThreshold>
      <weakClassifiers>
        <_>
          <internalNodes>
            0 -1 59 -3.8735970156267285e-04</internalNodes>
          <leafValues>
            -9.3939393758773804e-01 5.9670782089233398e-01</leafValues></_>
        <_>
          <internalNodes>
            0 -1 31 -3.5482063889503479e-02</internalNodes>
          <leafValues>
            8.1794846057891846e-01 -3.9190614223480225e-01</leafValues></_>
        <_>
          <internalNodes>
            0 -1 47 6.4702434465289116e-03</internalNodes>
          <leafValues>
            -3.8821718096733093e-01 6.8541741371154785e-01</leafValues></_>
        <_>
          <internalNodes>
            0 -1 15 -3.7299131508916616e-04</internalNodes>
          <leafValues>
            -9.7559118270874023e-01 2.7485439181327820e-01</leafValues></_></weakClassifiers></_>
    <!-- stage 2 -->
    <_>
      <maxWeakCount>7</maxWeakCount>
      <stageThreshold>-8.9260488748550415e-02</stageThreshold>
      <weakClassifiers>
        <_>
          <internalNodes>
            0 -1 13 -9.6930399537086487e-02</internalNodes>
          <leafValues>
            7.7049177885055542e-01 -4.6031746268272400e-01</leafValues></_>
        <_>
          <internalNodes>
            0 -1 42 -5.4420515894889832e-02</internalNodes>
          <leafValues>
            4.9466598033905029e-01 -6.1864686012268066e-01</leafValues></_>
        <_>
          <internalNodes>
            0 -1 22 -5.4672742262482643e-03</internalNodes>
          <leafValues>
            8.1852662563323975e-01 -2.8532364964485168e-01</leafValues></_>
        <_>
          <internalNodes>
            0 -1 21 1.4946204610168934e-03</internalNodes>
          <leafValues>
            4.1617771983146667e-01 -6.3426434993743896e-01</leafValues></_>
        <_>
          <internalNodes>
            0 -1 20 2.4659915652591735e-05</internalNodes>
          <leafValues>
            4.3788009881973267e-01 -6.2454521656036377e-01</leafValues></_>
        <_>
          <internalNodes>
            0 -1 12 -3.6783285904675722e-03</internalNodes>
          <leafValues>
            9.2532366514205933e-01 -3.0941340327262878e-01</leafValues></_>
        <_>
          <internalNodes>
            0 -1 10 1.0215574875473976e-02</internalNodes>
          <leafValues>
            -3.7823507189750671e-01 7.3038309812545776e-01</leafValues></_></weakClassifiers></_>
    <!-- stage 3 -->
    <_>
      <maxWeakCount>6</maxWeakCount>
      <stageThreshold>-3.3486777544021606e-01</stageThreshold>
      <weakClassifiers>
        <_>
          <internalNodes>
            0 -1 29 -5.6204028427600861e-02</internalNodes>
          <leafValues>
            6.1165046691894531e-01 -4.1747573018074036e-01</leafValues></_>
        <_>
          <internalNodes>
            0 -1 19 -5.3435698151588440e-02</internalNodes>
          <leafValues>
            7.5003910064697266e-01 -2.3763616383075714e-01</leafValues></_>
        <_>
          <internalNodes>
            0 -1 6 -4.2539918795228004e-03</internalNodes>
          <leafValues>
            6.9898581504821777e-01 -2.6291242241859436e-01</leafValues></_>
        <_>
          <internalNodes>
            0 -1 18 -4.2088522604899481e-06</internalNodes>
          <leafValues>
            -5.8588451147079468e-01 3.4659904241561890e-01</leafValues></_>
        <_>
          <internalNodes>
            0 -1 52 -7.9911976354196668e-04</internalNodes>
          <leafValues>
            6.3014549016952515e-01 -3.4331691265106201e-01</leafValues></_>
        <_>
          <internalNodes>
            0 -1 30 -3.2155174994841218e-04</internalNodes>
          <leafValues>
            5.8819931745529175e-01 -3.8202378153800964e-01</leafValues></_></weakClassifiers></_>
    <!-- stage 4 -->
    <_>
      <maxWeakCount>7</maxWeakCount>
      <stageThreshold>-5.3055793046951294e-01</stageThreshold>
      <weakClassifiers>
        <_>
          <internalNodes>
            0 -1 28 -4.1280157864093781e-02</internalNodes>
          <leafValues>
            7.5342464447021484e-01 -1.6564416885375977e-01</leafValues></_>
        <_>
          <internalNodes>
            0 -1 23 -3.2352015376091003e-02</internalNodes>
          <leafValues>
            4.3636906147003174e-01 -5.0783300399780273e-01</leafValues></_>
        <_>
          <internalNodes>
            0 -1 48 -2.7685871827998199e-05</internalNodes>
          <leafValues>
            5.2168303728103638e-01 -3.8686230778694153e-01</leafValues></_>
        <_>
          <internalNodes>
            0 -1 24 6.1513371765613556e-03</internalNodes>
          <leafValues>
            -3.1382599472999573e-01 6.9054138660430908e-01</leafValues></_>
        <_>
          <internalNodes>
            0 -1 1 -2.8922574711032212e-04</internalNodes>
          <leafValues>
            7.0070052146911621e-01 -3.5169389843940735e-01</leafValues></_>
        <_>
          <internalNodes>
            0 -1 57 -7.3003023862838745e-04</internalNodes>
          <leafValues>
            6.0003131628036499e-01 -3.5987728834152222e-01</leafValues></_>
        <_>
          <internalNodes>
            0 -1 38 3.9115712046623230e-02</internalNodes>
          <leafValues>
            -2.9756864905357361e-01 7.2262531518936157e-01</leafValues></_></weakClassifiers></_>
    <!-- stage 5 -->
    <_>
      <maxWeakCount>6</maxWeakCount>
      <stageThreshold>-4.8324802517890930e-01</stageThreshold>
      <weakClassifiers>
        <_>
          <internalNodes>
            0 -1 0 -5.2037835121154785e-01</internalNodes>
          <leafValues>
            -4.4117647409439087e-01 8.2658958435058594e-01</leafValues></_>
        <_>
          <internalNodes>
            0 -1 5 -5.1588937640190125e-02</internalNodes>
          <leafValues>
            -4.4144684076309204e-01 7.0983350276947021e-01</leafValues></_>
        <_>
          <internalNodes>
            0 -1 50 1.9562906527426094e-04</internalNodes>
          <leafValues>
            -3.8593596220016479e-01 7.2492301464080811e-01</leafValues></_>
        <_>
          <internalNodes>
            0 -1 58 3.5717247519642115e-03</internalNodes>
          <leafValues>
            -3.3110907673835754e-01 7.7661156654357910e-01</leafValues></_>
        <_>
          <internalNodes>
            0 -1 55 -1.4943557977676392e-01</internalNodes>
          <leafValues>
            -6.5727555751800537e-01 4.7933661937713623e-01</leafValues></_>
        <_>
          <internalNodes>
            0 -1 45 3.2035259209806100e-05</internalNodes>
          <leafValues>
            -4.4056609272956848e-01 6.6283690929412842e-01</leafValues></_></weakClassifiers></_>
    <!-- stage 6 -->
    <_>
      <maxWeakCount>7</maxWeakCount>
      <stageThreshold>-2.8689837455749512e-01</stageThreshold>
      <weakClassifiers>
        <_>
          <internalNodes>
            0 -1 11 -2.9672223329544067e-01</internalNodes>
          <leafValues>
            -2.8169015049934387e-01 7.3652696609497070e-01</leafValues></_>
        <_>
          <internalNodes>
            0 -1 17 3.1336261890828609e-03</internalNodes>
          <leafValues>
            -1.8713679909706116e-01 8.6316049098968506e-01</leafValues></_>
        <_>
          <internalNodes>
            0 -1 56 -3.5478905192576349e-04</internalNodes>
          <leafValues>
            5.6258273124694824e-01 -3.7661358714103699e-01</leafValues></_>
        <_>
          <internalNodes>
            0 -1 8 -8.3378050476312637e-05</internalNodes>
          <leafValues>
            6.8499016761779785e-01 -2.8540107607841492e-01</leafValues></_>
        <_>
          <internalNodes>
            0 -1 16 5.6037711910903454e-03</internalNodes>
          <leafValues>
            -2.0353752374649048e-01 9.4874835014343262e-01</leafValues></_>
        <_>
          <internalNodes>
            0 -1 41 -3.8009857235010713e-05</internalNodes>
          <leafValues>
            5.9884583950042725e-01 -3.6425736546516418e-01</leafValues></_>
        <_>
          <internalNodes>
            0 -1 3 -7.1475524455308914e-03</internalNodes>
          <leafValues>
            4.7306811809539795e-01 -4.9056136608123779e-01</leafValues></_></weakClassifiers></_>
    <!-- stage 7 -->
    <_>
      <maxWeakCount>7</maxWeakCount>
      <stageThreshold>-2.4530610442161560e-01</stageThreshold>
      <weakClassifiers>
        <_>
          <internalNodes>
            0 -1 4 -2.2484429180622101e-02</internalNodes>
          <leafValues>
            6.9832402467727661e-01 -3.2307693362236023e-01</leafValues></_>
        <_>
          <internalNodes>
            0 -1 46 -6.9208552304189652e-05</internalNodes>
          <leafValues>
            -6.7765325307846069e-01 3.6559656262397766e-01</leafValues></_>
        <_>
          <internalNodes>
            0 -1 27 -1.2968688679393381e-05</internalNodes>
          <leafValues>
            -7.5708794593811035e-01 2.8518885374069214e-01</leafValues></_>
        <_>
          <internalNodes>
            0 -1 39 8.1060128286480904e-04</internalNodes>
          <leafValues>
            -3.1212231516838074e-01 8.3377957344055176e-01</leafValues></_>
        <_>
          <internalNodes>
            0 -1 49 9.8216158221475780e-05</internalNodes>
          <leafValues>
            2.6216268539428711e-01 -8.5812664031982422e-01</leafValues></_>
        <_>
          <internalNodes>
            0 -1 32 5.5387745305779390e-06</internalNodes>
          <leafValues>
            3.8287138938903809e-01 -6.5803748369216919e-01</leafValues></_>
        <_>
          <internalNodes>
            0 -1 35 -1.5585372239002027e-05</internalNodes>
          <leafValues>
            -9.2123448848724365e-01 2.1436294913291931e-01</leafValues></_></weakClassifiers></_>
    <!-- stage 8 -->
    <_>
      <maxWeakCount>8</maxWeakCount>
      <stageThreshold>-2.6306578516960144e-01</stageThreshold>
      <weakClassifiers>
        <_>
          <internalNodes>
            0 -1 44 -1.4725368237122893e-04</internalNodes>
          <leafValues>
            -5.4285717010498047e-01 5.0627613067626953e-01</leafValues></_>
        <_>
          <internalNodes>
            0 -1 33 6.1355358411674388e-06</internalNodes>
          <leafValues>
            3.4455695748329163e-01 -6.0839992761611938e-01</leafValues></_>
        <_>
          <internalNodes>
            0 -1 26 -9.1042835265398026e-03</internalNodes>
          <leafValues>
            8.9961016178131104e-01 -2.5023707747459412e-01</leafValues></_>
        <_>
          <internalNodes>
            0 -1 40 5.5000124120851979e-05</internalNodes>
          <leafValues>
            3.3552271127700806e-01 -7.1553903818130493e-01</leafValues></_>
        <_>
          <internalNodes>
            0 -1 53 7.7056977897882462e-03</internalNodes>
          <leafValues>
            -3.9067506790161133e-01 6.5807664394378662e-01</leafValues></_>
        <_>
          <internalNodes>
            0 -1 37 1.1514997822814621e-05</internalNodes>
          <leafValues>
            3.9601942896842957e-01 -5.8094871044158936e-01</leafValues></_>
        <_>
          <internalNodes>
            0 -1 43 3.0532508390024304e-04</internalNodes>
          <leafValues>
            2.5523614883422852e-01 -8.7003320455551147e-01</leafValues></_>
        <_>
          <internalNodes>
            0 -1 34 -5.7171029038727283e-03</internalNodes>
          <leafValues>
            7.0205873250961304e-01 -4.0870326757431030e-01</leafValues></_></weakClassifiers></_>
    <!-- stage 9 -->
    <_>
      <maxWeakCount>4</maxWeakCount>
      <stageThreshold>-2.1240872144699097e-01</stageThreshold>
      <weakClassifiers>
        <_>
          <internalNodes>
            0 -1 25 -3.8698702119290829e-03</internalNodes>
          <leafValues>
            -2.6114648580551147e-01 8.1578946113586426e-01</leafValues></_>
        <_>
          <internalNodes>
            0 -1 54 2.0991803467040882e-05</internalNodes>
          <leafValues>
            3.9323160052299500e-01 -7.8512227535247803e-01</leafValues></_>
        <_>
          <internalNodes>
            0 -1 14 -1.2134169042110443e-01</internalNodes>
          <leafValues>
            5.7276535034179688e-01 -4.6307185292243958e-01</leafValues></_>
        <_>
          <internalNodes>
            0 -1 51 -9.7633765108184889e-06</internalNodes>
          <leafValues>
            -8.1584125757217407e-01 3.8915508985519409e-01</leafValues></_></weakClassifiers></_></stages>
  <features>
    <_>
      <rects>
        <_>
          0 3 91 93 -1.</_>
        <_>
          0 34 91 31 2.</_></rects>
      <tilted>0</tilted></_>
    <_>
      <rects>
        <_>
          0 24 30 1 -1.</_>
        <_>
          15 24 15 1 2.</_></rects>
      <tilted>0</tilted></_>
    <_>
      <rects>
        <_>
          0 25 72 15 -1.</_>
        <_>
          36 25 36 15 2.</_></rects>
      <tilted>0</tilted></_>
    <_>
      <rects>
        <_>
          0 38 78 20 -1.</_>
        <_>
          0 48 78 10 2.</_></rects>
      <tilted>0</tilted></_>
    <_>
      <rects>
        <_>
          0 46 66 6 -1.</_>
        <_>
          0 48 66 2 2.</_></rects>
      <tilted>0</tilted></_>
    <_>
      <rects>
        <_>
          1 28 18 42 -1.</_>
        <_>
          1 42 18 14 2.</_></rects>
      <tilted>0</tilted></_>
    <_>
      <rects>
        <_>
          1 43 12 57 -1.</_>
        <_>
          7 43 6 57 2.</_></rects>
      <tilted>0</tilted></_>
    <_>
      <rects>
        <_>
          1 69 9 3 -1.</_>
        <_>
          1 70 9 1 2.</_></rects>
      <tilted>0</tilted></_>
    <_>
      <rects>
        <_>
          1 84 3 10 -1.</_>
        <_>
          1 89 3 5 2.</_></rects>
      <tilted>0</tilted></_>
    <_>
      <rects>
        <_>
          3 12 80 88 -1.</_>
        <_>
          3 56 80 44 2.</_></rects>
      <tilted>0</tilted></_>
    <_>
      <rects>
        <_>
          4 22 42 24 -1.</_>
        <_>
          25 22 21 24 2.</_></rects>
      <tilted>0</tilted></_>
    <_>
      <rects>
        <_>
          8 4 67 75 -1.</_>
        <_>
          8 29 67 25 2.</_></rects>
      <tilted>0</tilted></_>
    <_>
      <rects>
        <_>
          9 21 1 74 -1.</_>
        <_>
          9 58 1 37 2.</_></rects>
      <tilted>0</tilted></_>
    <_>
      <rects>
        <_>
          10 26 75 68 -1.</_>
        <_>
          10 60 75 34 2.</_></rects>
      <tilted>0</tilted></_>
    <_>
      <rects>
        <_>
          10 30 76 62 -1.</_>
        <_>
          10 61 76 31 2.</_></rects>
      <tilted>0</tilted></_>
    <_>
      <rects>
        <_>
          10 86 1 3 -1.</_>
        <_>
          10 87 1 1 2.</_></rects>
      <tilted>0</tilted></_>
    <_>
      <rects>
        <_>
          15 6 83 6 -1.</_>
        <_>
          15 9 83 3 2.</_></rects>
      <tilted>0</tilted></_>
    <_>
      <rects>
        <_>
          16 1 40 6 -1.</_>
        <_>
          16 4 40 3 2.</_></rects>
      <tilted>0</tilted></_>
    <_>
      <rects>
        <_>
          17 67 2 2 -1.</_>
        <_>
          17 67 1 1 2.</_>
        <_>
          18 68 1 1 2.</_></rects>
      <tilted>0</tilted></_>
    <_>
      <rects>
        <_>
          19 58 72 36 -1.</_>
        <_>
          19 76 72 18 2.</_></rects>
      <tilted>0</tilted></_>
    <_>
      <rects>
        <_>
          19 92 2 8 -1.</_>
        <_>
          20 92 1 8 2.</_></rects>
      <tilted>0</tilted></_>
    <_>
      <rects>
        <_>
          20 96 62 2 -1.</_>
        <_>
          51 96 31 2 2.</_></rects>
      <tilted>0</tilted></_>
    <_>
      <rects>
        <_>
          22 60 34 32 -1.</_>
        <_>
          22 60 17 16 2.</_>
        <_>
          39 76 17 16 2.</_></rects>
      <tilted>0</tilted></_>
    <_>
      <rects>
        <_>
          26 7 69 9 -1.</_>
        <_>
          26 10 69 3 2.</_></rects>
      <tilted>0</tilted></_>
    <_>
      <rects>
        <_>
          28 14 46 40 -1.</_>
        <_>
          28 14 23 20 2.</_>
        <_>
          51 34 23 20 2.</_></rects>
      <tilted>0</tilted></_>
    <_>
      <rects>
        <_>
          28 81 30 3 -1.</_>
        <_>
          28 82 30 1 2.</_></rects>
      <tilted>0</tilted></_>
    <_>
      <rects>
        <_>
          29 70 51 12 -1.</_>
        <_>
          29 76 51 6 2.</_></rects>
      <tilted>0</tilted></_>
    <_>
      <rects>
        <_>
          32 54 2 2 -1.</_>
        <_>
          32 54 1 1 2.</_>
        <_>
          33 55 1 1 2.</_></rects>
      <tilted>0</tilted></_>
    <_>
      <rects>
        <_>
          34 38 22 62 -1.</_>
        <_>
          34 69 22 31 2.</_></rects>
      <tilted>0</tilted></_>
    <_>
      <rects>
        <_>
          39 19 37 80 -1.</_>
        <_>
          39 59 37 40 2.</_></rects>
      <tilted>0</tilted></_>
    <_>
      <rects>
        <_>
          40 34 34 6 -1.</_>
        <_>
          40 34 17 3 2.</_>
        <_>
          57 37 17 3 2.</_></rects>
      <tilted>0</tilted></_>
    <_>
      <rects>
        <_>
          41 56 45 38 -1.</_>
        <_>
          41 75 45 19 2.</_></rects>
      <tilted>0</tilted></_>
    <_>
      <rects>
        <_>
          44 71 2 2 -1.</_>
        <_>
          44 71 1 1 2.</_>
        <_>
          45 72 1 1 2.</_></rects>
      <tilted>0</tilted></_>
    <_>
      <rects>
        <_>
          45 66 2 2 -1.</_>
        <_>
          45 66 1 1 2.</_>
        <_>
          46 67 1 1 2.</_></rects>
      <tilted>0</tilted></_>
    <_>
      <rects>
        <_>
          46 7 32 12 -1.</_>
        <_>
          46 13 32 6 2.</_></rects>
      <tilted>0</tilted></_>
    <_>
      <rects>
        <_>
          47 64 2 2 -1.</_>
        <_>
          47 64 1 1 2.</_>
        <_>
          48 65 1 1 2.</_></rects>
      <tilted>0</tilted></_>
    <_>
      <rects>
        <_>
          49 4 25 3 -1.</_>
        <_>
          49 5 25 1 2.</_></rects>
      <tilted>0</tilted></_>
    <_>
      <rects>
        <_>
          49 54 2 4 -1.</_>
        <_>
          49 54 1 2 2.</_>
        <_>
          50 56 1 2 2.</_></rects>
      <tilted>0</tilted></_>
    <_>
      <rects>
        <_>
          54 2 46 94 -1.</_>
        <_>
          54 2 23 47 2.</_>
        <_>
          77 49 23 47 2.</_></rects>
      <tilted>0</tilted></_>
    <_>
      <rects>
        <_>
          55 86 3 14 -1.</_>
        <_>
          55 93 3 7 2.</_></rects>
      <tilted>0</tilted></_>
    <_>
      <rects>
        <_>
          56 4 2 9 -1.</_>
        <_>
          57 4 1 9 2.</_></rects>
      <tilted>0</tilted></_>
    <_>
      <rects>
        <_>
          56 62 2 8 -1.</_>
        <_>
          56 66 2 4 2.</_></rects>
      <tilted>0</tilted></_>
    <_>
      <rects>
        <_>
          57 0 18 64 -1.</_>
        <_>
          63 0 6 64 2.</_></rects>
      <tilted>0</tilted></_>
    <_>
      <rects>
        <_>
          58 1 4 8 -1.</_>
        <_>
          58 1 2 4 2.</_>
        <_>
          60 5 2 4 2.</_></rects>
      <tilted>0</tilted></_>
    <_>
      <rects>
        <_>
          58 8 2 26 -1.</_>
        <_>
          58 8 1 13 2.</_>
        <_>
          59 21 1 13 2.</_></rects>
      <tilted>0</tilted></_>
    <_>
      <rects>
        <_>
          59 0 1 6 -1.</_>
        <_>
          59 3 1 3 2.</_></rects>
      <tilted>0</tilted></_>
    <_>
      <rects>
        <_>
          61 89 2 11 -1.</_>
        <_>
          62 89 1 11 2.</_></rects>
      <tilted>0</tilted></_>
    <_>
      <rects>
        <_>
          62 29 38 42 -1.</_>
        <_>
          62 29 19 21 2.</_>
        <_>
          81 50 19 21 2.</_></rects>
      <tilted>0</tilted></_>
    <_>
      <rects>
        <_>
          63 77 6 4 -1.</_>
        <_>
          63 79 6 2 2.</_></rects>
      <tilted>0</tilted></_>
    <_>
      <rects>
        <_>
          64 32 2 10 -1.</_>
        <_>
          64 32 1 5 2.</_>
        <_>
          65 37 1 5 2.</_></rects>
      <tilted>0</tilted></_>
    <_>
      <rects>
        <_>
          66 21 1 22 -1.</_>
        <_>
          66 32 1 11 2.</_></rects>
      <tilted>0</tilted></_>
    <_>
      <rects>
        <_>
          67 77 2 2 -1.</_>
        <_>
          67 77 1 1 2.</_>
        <_>
          68 78 1 1 2.</_></rects>
      <tilted>0</tilted></_>
    <_>
      <rects>
        <_>
          68 4 22 11 -1.</_>
        <_>
          79 4 11 11 2.</_></rects>
      <tilted>0</tilted></_>
    <_>
      <rects>
        <_>
          72 20 14 28 -1.</_>
        <_>
          72 34 14 14 2.</_></rects>
      <tilted>0</tilted></_>
    <_>
      <rects>
        <_>
          77 48 2 2 -1.</_>
        <_>
          77 48 1 1 2.</_>
        <_>
          78 49 1 1 2.</_></rects>
      <tilted>0</tilted></_>
    <_>
      <rects>
        <_>
          78 2 21 85 -1.</_>
        <_>
          85 2 7 85 2.</_></rects>
      <tilted>0</tilted></_>
    <_>
      <rects>
        <_>
          83 73 7 16 -1.</_>
        <_>
          83 81 7 8 2.</_></rects>
      <tilted>0</tilted></_>
    <_>
      <rects>
        <_>
          88 30 10 50 -1.</_>
        <_>
          93 30 5 50 2.</_></rects>
      <tilted>0</tilted></_>
    <_>
      <rects>
        <_>
          90 26 10 60 -1.</_>
        <_>
          90 26 5 30 2.</_>
        <_>
          95 56 5 30 2.</_></rects>
      <tilted>0</tilted></_>
    <_>
      <rects>
        <_>
          98 90 1 3 -1.</_>
        <_>
          98 91 1 1 2.</_></rects>
      <tilted>0</tilted></_></features></cascade>
</opencv_storage>
