<?xml version="1.0"?>
<opencv_storage>
<stage7>
  <maxWeakCount>7</maxWeakCount>
  <stageThreshold>-2.4530610442161560e-01</stageThreshold>
  <weakClassifiers>
    <_>
      <internalNodes>
        0 -1 687605 -2.2484429180622101e-02</internalNodes>
      <leafValues>
        6.9832402467727661e-01 -3.2307693362236023e-01</leafValues></_>
    <_>
      <internalNodes>
        0 -1 41178079 -6.9208552304189652e-05</internalNodes>
      <leafValues>
        -6.7765325307846069e-01 3.6559656262397766e-01</leafValues></_>
    <_>
      <internalNodes>
        0 -1 26380400 -1.2968688679393381e-05</internalNodes>
      <leafValues>
        -7.5708794593811035e-01 2.8518885374069214e-01</leafValues></_>
    <_>
      <internalNodes>
        0 -1 38803153 8.1060128286480904e-04</internalNodes>
      <leafValues>
        -3.1212231516838074e-01 8.3377957344055176e-01</leafValues></_>
    <_>
      <internalNodes>
        0 -1 42080196 9.8216158221475780e-05</internalNodes>
      <leafValues>
        2.6216268539428711e-01 -8.5812664031982422e-01</leafValues></_>
    <_>
      <internalNodes>
        0 -1 33521244 5.5387745305779390e-06</internalNodes>
      <leafValues>
        3.8287138938903809e-01 -6.5803748369216919e-01</leafValues></_>
    <_>
      <internalNodes>
        0 -1 35045040 -1.5585372239002027e-05</internalNodes>
      <leafValues>
        -9.2123448848724365e-01 2.1436294913291931e-01</leafValues></_></weakClassifiers></stage7>
</opencv_storage>
